digraph Tree {
node [shape=box, style="filled, rounded", color="black", fontname=helvetica] ;
graph [ranksep=equally, splines=polyline] ;
edge [fontname=helvetica] ;
0 [label="node #0\nPetalWidthCm <= 0.8\ngini = 0.667\nsamples = 150\nvalue = [50, 50, 50]\nclass = Iris-setosa", fillcolor="#ffffff"] ;
1 [label="node #1\ngini = 0.0\nsamples = 50\nvalue = [50, 0, 0]\nclass = Iris-setosa", fillcolor="#e58139"] ;
0 -> 1 [labeldistance=2.5, labelangle=45, headlabel="True"] ;
2 [label="node #2\nPetalWidthCm <= 1.75\ngini = 0.5\nsamples = 100\nvalue = [0, 50, 50]\nclass = Iris-versicolor", fillcolor="#ffffff"] ;
0 -> 2 [labeldistance=2.5, labelangle=-45, headlabel="False"] ;
3 [label="node #3\nPetalLengthCm <= 4.95\ngini = 0.168\nsamples = 54\nvalue = [0, 49, 5]\nclass = Iris-versicolor", fillcolor="#4de88e"] ;
2 -> 3 ;
4 [label="node #4\ngini = 0.041\nsamples = 48\nvalue = [0, 47, 1]\nclass = Iris-versicolor", fillcolor="#3de684"] ;
3 -> 4 ;
5 [label="node #5\ngini = 0.444\nsamples = 6\nvalue = [0, 2, 4]\nclass = Iris-virginica", fillcolor="#c09cf2"] ;
3 -> 5 ;
6 [label="node #6\nPetalLengthCm <= 4.85\ngini = 0.043\nsamples = 46\nvalue = [0, 1, 45]\nclass = Iris-virginica", fillcolor="#843de6"] ;
2 -> 6 ;
7 [label="node #7\ngini = 0.444\nsamples = 3\nvalue = [0, 1, 2]\nclass = Iris-virginica", fillcolor="#c09cf2"] ;
6 -> 7 ;
8 [label="node #8\ngini = 0.0\nsamples = 43\nvalue = [0, 0, 43]\nclass = Iris-virginica", fillcolor="#8139e5"] ;
6 -> 8 ;
{rank=same ; 0} ;
{rank=same ; 2} ;
{rank=same ; 3; 6} ;
{rank=same ; 1; 4; 5; 7; 8} ;
}
